digraph Tree {
node [shape=box, style="filled, rounded", color="black", fontname=helvetica] ;
edge [fontname=helvetica] ;
0 [label="TLOD <= 169.08\ngini = 0.258\nsamples = 486\nvalue = [412, 74]\nclass = False", fillcolor="#e58139d1"] ;
1 [label="ECNT <= 1.5\ngini = 0.069\nsamples = 417\nvalue = [402, 15]\nclass = False", fillcolor="#e58139f5"] ;
0 -> 1 [labeldistance=2.5, labelangle=45, headlabel="True"] ;
2 [label="TLOD <= 57.335\ngini = 0.413\nsamples = 48\nvalue = [34, 14]\nclass = False", fillcolor="#e5813996"] ;
1 -> 2 ;
3 [label="gini = 0.0\nsamples = 32\nvalue = [32, 0]\nclass = False", fillcolor="#e58139ff"] ;
2 -> 3 ;
4 [label="gini = 0.219\nsamples = 16\nvalue = [2, 14]\nclass = True", fillcolor="#399de5db"] ;
2 -> 4 ;
5 [label="MIN_ED <= 120.5\ngini = 0.005\nsamples = 369\nvalue = [368, 1]\nclass = False", fillcolor="#e58139fe"] ;
1 -> 5 ;
6 [label="gini = 0.0\nsamples = 366\nvalue = [366, 0]\nclass = False", fillcolor="#e58139ff"] ;
5 -> 6 ;
7 [label="gini = 0.444\nsamples = 3\nvalue = [2, 1]\nclass = False", fillcolor="#e581397f"] ;
5 -> 7 ;
8 [label="ECNT <= 4.5\ngini = 0.248\nsamples = 69\nvalue = [10, 59]\nclass = True", fillcolor="#399de5d4"] ;
0 -> 8 [labeldistance=2.5, labelangle=-45, headlabel="False"] ;
9 [label="gini = 0.0\nsamples = 59\nvalue = [0, 59]\nclass = True", fillcolor="#399de5ff"] ;
8 -> 9 ;
10 [label="gini = 0.0\nsamples = 10\nvalue = [10, 0]\nclass = False", fillcolor="#e58139ff"] ;
8 -> 10 ;
}